%YAML:1.0
---
opencv_ml_svm:
   format: 3
   svmType: C_SVC
   kernel:
      type: LINEAR
   C: 100.
   term_criteria: { epsilon:1.1920928955078125e-07, iterations:1000 }
   var_count: 5
   class_count: 6
   class_labels: !!opencv-matrix
      rows: 6
      cols: 1
      dt: i
      data: [ -1, 0, 1, 2, 3, 5 ]
   sv_total: 15
   support_vectors:
      - [ -1.68932972e+01, 8.47012281e-01, 7.28102779e+00,
          4.73974514e+00, 1.73824329e+01 ]
      - [ 2.98443007e+00, -1.10189190e+01, -4.48516607e+00,
          -8.91119289e+00, -3.47772050e+00 ]
      - [ 6.07609272e-01, 3.27895927e+00, -1.23431330e+01,
          -2.03368711e+00, 2.60316896e+00 ]
      - [ -6.28446758e-01, 9.19839382e-01, -2.00680733e+00,
          -6.48468161e+00, -1.09599245e+00 ]
      - [ 2.12344036e-01, 2.33707404e+00, -3.13880634e+00,
          -7.45043421e+00, -1.04309158e+01 ]
      - [ 7.70358706e+00, -3.70225215e+00, -3.41356969e+00,
          -4.71578360e+00, -2.40251660e+00 ]
      - [ 4.15997219e+00, 1.31080031e+00, -4.58612776e+00,
          -1.84400785e+00, 4.15558487e-01 ]
      - [ 3.00107360e+00, 4.99235928e-01, -1.17570376e+00,
          -3.74066567e+00, -2.01193142e+00 ]
      - [ 3.09344959e+00, 1.17849720e+00, -1.36413407e+00,
          -4.00480509e+00, -6.29657555e+00 ]
      - [ 7.56260693e-01, 1.12134581e+01, -7.57094240e+00,
          4.31431293e+00, 5.09403086e+00 ]
      - [ 8.73643935e-01, 3.57861996e+00, 4.54836577e-01,
          -5.79872227e+00, -1.35730386e+00 ]
      - [ 3.60546756e+00, 4.54964733e+00, 4.51988792e+00,
          -3.67189026e+00, -6.04144049e+00 ]
      - [ -6.60723627e-01, 1.56952894e+00, 2.91814756e+00,
          -4.44040966e+00, -2.57042098e+00 ]
      - [ 6.90643638e-02, 9.56058919e-01, 5.86000919e+00,
          -2.18677092e+00, -4.23952961e+00 ]
      - [ 8.09987128e-01, -2.98994279e+00, 3.88355780e+00,
          8.19682598e+00, -3.24724197e+00 ]
   uncompressed_sv_total: 43
   uncompressed_support_vectors:
      - [ 8.36868703e-01, 6.70972407e-01, 6.17997110e-01, 6.30551517e-01,
          7.33780861e-01 ]
      - [ 7.85128176e-01, 7.89332211e-01, 7.11941123e-01, 6.69496298e-01,
          7.05432951e-01 ]
      - [ 8.44444454e-01, 6.79500520e-01, 6.24349654e-01, 6.37096763e-01,
          7.31529653e-01 ]
      - [ 8.30769241e-01, 8.43750000e-01, 6.85048997e-01, 6.58578455e-01,
          7.03921556e-01 ]
      - [ 5.99206328e-01, 7.55235612e-01, 6.05643809e-01, 5.68595290e-01,
          6.06131852e-01 ]
      - [ 6.28571451e-01, 8.59210551e-01, 7.63636351e-01, 6.63858116e-01,
          6.54545426e-01 ]
      - [ 7.70634949e-01, 7.74999976e-01, 6.87500000e-01, 5.60975611e-01,
          7.37500012e-01 ]
      - [ 8.50000024e-01, 6.81508660e-01, 6.19434237e-01, 6.38292313e-01,
          7.07317054e-01 ]
      - [ 5.12698412e-01, 7.69736826e-01, 7.16113567e-01, 6.70131922e-01,
          6.29348278e-01 ]
      - [ 7.81538486e-01, 8.46016705e-01, 6.82298124e-01, 6.49252713e-01,
          7.15480626e-01 ]
      - [ 5.96825421e-01, 7.42708325e-01, 6.53110027e-01, 6.77083313e-01,
          5.35064936e-01 ]
      - [ 6.65079355e-01, 7.74342120e-01, 6.07655525e-01, 6.81596458e-01,
          7.22368419e-01 ]
      - [ 4.61904764e-01, 7.17105269e-01, 7.13797808e-01, 6.97299302e-01,
          6.62253022e-01 ]
      - [ 8.27692330e-01, 8.49431813e-01, 6.83790743e-01, 6.48604274e-01,
          6.88716888e-01 ]
      - [ 8.25252533e-01, 6.99220777e-01, 6.64935052e-01, 6.35920167e-01,
          6.87443554e-01 ]
      - [ 7.76190460e-01, 7.96052635e-01, 5.85326970e-01, 6.22616410e-01,
          6.72727287e-01 ]
      - [ 7.92857170e-01, 8.31578970e-01, 6.98369563e-01, 6.35476708e-01,
          6.58441544e-01 ]
      - [ 8.13492060e-01, 7.42105246e-01, 6.78030312e-01, 6.29268289e-01,
          6.75324678e-01 ]
      - [ 7.80952394e-01, 7.56060600e-01, 5.78149915e-01, 6.20842576e-01,
          6.64935052e-01 ]
      - [ 8.05555582e-01, 7.38157868e-01, 6.77206874e-01, 6.24833703e-01,
          6.70129895e-01 ]
      - [ 8.26153874e-01, 7.82309592e-01, 6.83046699e-01, 6.90417707e-01,
          6.45161271e-01 ]
      - [ 7.65873015e-01, 8.40789497e-01, 6.88301265e-01, 5.71175158e-01,
          6.81818187e-01 ]
      - [ 7.86666691e-01, 8.13530684e-01, 6.22187316e-01, 5.74279368e-01,
          6.61935508e-01 ]
      - [ 6.94444418e-01, 6.99999988e-01, 5.73365211e-01, 5.79157412e-01,
          6.84415579e-01 ]
      - [ 8.10317457e-01, 7.19736814e-01, 6.56887770e-01, 6.97066307e-01,
          6.51948035e-01 ]
      - [ 6.39682531e-01, 9.57049489e-01, 7.46965468e-01, 6.88141942e-01,
          6.33986950e-01 ]
      - [ 7.05641031e-01, 9.34659064e-01, 7.74982512e-01, 7.49126494e-01,
          7.20475197e-01 ]
      - [ 5.37301600e-01, 9.21052635e-01, 8.33333313e-01, 7.82222211e-01,
          6.14285707e-01 ]
      - [ 6.36507928e-01, 8.30263138e-01, 7.57352948e-01, 7.22426474e-01,
          7.37132370e-01 ]
      - [ 5.74603200e-01, 7.78801858e-01, 8.98724079e-01, 7.24168539e-01,
          6.63594484e-01 ]
      - [ 6.03968263e-01, 7.59908557e-01, 9.04306233e-01, 7.26385832e-01,
          6.38719499e-01 ]
      - [ 5.03174603e-01, 7.80459762e-01, 8.99521530e-01, 7.10421264e-01,
          6.95402324e-01 ]
      - [ 5.40476203e-01, 8.14732134e-01, 8.79585326e-01, 7.37472296e-01,
          5.70129871e-01 ]
      - [ 5.61904788e-01, 7.96257794e-01, 9.14673030e-01, 7.13968933e-01,
          6.71428561e-01 ]
      - [ 5.00793636e-01, 6.86842084e-01, 8.54066968e-01, 7.10864723e-01,
          5.98701298e-01 ]
      - [ 5.97619057e-01, 7.99407125e-01, 9.55533624e-01, 7.41463423e-01,
          6.96640313e-01 ]
      - [ 6.01025641e-01, 6.84920609e-01, 7.38880157e-01, 9.57936525e-01,
          7.92258084e-01 ]
      - [ 5.49206376e-01, 6.54999971e-01, 6.62500024e-01, 6.97499990e-01,
          8.57142866e-01 ]
      - [ 6.13492072e-01, 6.75000012e-01, 6.12440169e-01, 7.50332594e-01,
          8.40259731e-01 ]
      - [ 5.00793636e-01, 7.47500002e-01, 6.97499990e-01, 7.85809338e-01,
          8.41558456e-01 ]
      - [ 6.09523833e-01, 7.42105246e-01, 6.53110027e-01, 8.01330388e-01,
          8.59740257e-01 ]
      - [ 6.39682531e-01, 6.60000026e-01, 6.49999976e-01, 6.65555537e-01,
          8.96103919e-01 ]
      - [ 4.72820520e-01, 6.80921078e-01, 6.01255894e-01, 7.02439010e-01,
          8.01290333e-01 ]
   decision_functions:
      -
         sv_count: 1
         rho: 7.1578364104824468e+00
         alpha: [ 1. ]
         index: [ 0 ]
      -
         sv_count: 1
         rho: -1.9323820848028458e+01
         alpha: [ 1. ]
         index: [ 1 ]
      -
         sv_count: 1
         rho: -6.8726110722907432e+00
         alpha: [ 1. ]
         index: [ 2 ]
      -
         sv_count: 1
         rho: -7.3107075433610893e+00
         alpha: [ 1. ]
         index: [ 3 ]
      -
         sv_count: 1
         rho: -1.3569536112121675e+01
         alpha: [ 1. ]
         index: [ 4 ]
      -
         sv_count: 1
         rho: -4.9334992010722258e+00
         alpha: [ 1. ]
         index: [ 5 ]
      -
         sv_count: 1
         rho: -7.1271960810248169e-01
         alpha: [ 1. ]
         index: [ 6 ]
      -
         sv_count: 1
         rho: -2.9003338387342881e+00
         alpha: [ 1. ]
         index: [ 7 ]
      -
         sv_count: 1
         rho: -5.4378536503451080e+00
         alpha: [ 1. ]
         index: [ 8 ]
      -
         sv_count: 1
         rho: 9.9293620384911563e+00
         alpha: [ 1. ]
         index: [ 9 ]
      -
         sv_count: 1
         rho: -2.3179197877286497e+00
         alpha: [ 1. ]
         index: [ 10 ]
      -
         sv_count: 1
         rho: 1.3894423064596328e+00
         alpha: [ 1. ]
         index: [ 11 ]
      -
         sv_count: 1
         rho: -2.4560142843038357e+00
         alpha: [ 1. ]
         index: [ 12 ]
      -
         sv_count: 1
         rho: 5.5040561007489930e-01
         alpha: [ 1. ]
         index: [ 13 ]
      -
         sv_count: 1
         rho: 5.5878203751994633e+00
         alpha: [ 1. ]
         index: [ 14 ]
