%YAML:1.0
---
opencv_ml_svm:
   format: 3
   svmType: C_SVC
   kernel:
      type: LINEAR
   C: 100.
   term_criteria: { epsilon:1.1920928955078125e-07, iterations:1000 }
   var_count: 5
   class_count: 6
   class_labels: !!opencv-matrix
      rows: 6
      cols: 1
      dt: i
      data: [ -1, 0, 1, 2, 3, 5 ]
   sv_total: 15
   support_vectors:
      - [ -1.80685959e+01, -5.69025517e+00, 1.04596977e+01,
          7.75204945e+00, -2.17070246e+00 ]
      - [ 1.23291440e-01, -1.82865601e+01, -6.46431494e+00,
          4.22870070e-01, 6.76044846e+00 ]
      - [ 1.52051723e+00, 1.63041055e+00, -9.07074261e+00,
          1.81268275e+00, 6.09236288e+00 ]
      - [ 1.59156132e+00, 2.14171147e+00, -6.51504874e-01,
          -6.70327139e+00, 4.40504646e+00 ]
      - [ 1.44434285e+00, 8.58171880e-01, 7.99811125e+00, 6.06819630e-01,
          -2.17280502e+01 ]
      - [ 5.86483479e+00, -8.05462837e+00, -4.70849657e+00,
          -1.58142614e+00, -3.24046522e-01 ]
      - [ 2.99092340e+00, 8.23307574e-01, -4.64033556e+00,
          -1.25373149e+00, 1.22575498e+00 ]
      - [ 2.00706315e+00, 1.72075379e+00, -1.56216025e+00,
          -4.29431963e+00, 1.12817693e+00 ]
      - [ 3.80814576e+00, 3.03069496e+00, -1.43465191e-01,
          -1.79772770e+00, -8.46766663e+00 ]
      - [ 2.62454367e+00, 9.97191238e+00, -8.04893684e+00,
          2.53420568e+00, 4.39515018e+00 ]
      - [ 2.67018601e-02, 4.65685129e+00, 5.85679412e-01,
          -3.75926232e+00, 7.86205351e-01 ]
      - [ -6.70877218e-01, 5.99274492e+00, 3.69695449e+00,
          -2.31719303e+00, -5.99655056e+00 ]
      - [ -1.99870241e+00, 1.63964081e+00, 4.04608822e+00,
          -5.42102003e+00, -1.71530366e-01 ]
      - [ 8.82161915e-01, 1.12999952e+00, 5.10733366e+00, 8.48555267e-01,
          -4.83509922e+00 ]
      - [ -2.71152169e-01, -2.04700381e-01, 1.73537850e+00,
          3.85429978e+00, -5.29199266e+00 ]
   uncompressed_sv_total: 38
   uncompressed_support_vectors:
      - [ 8.49453330e-01, 7.48484850e-01, 6.99999988e-01, 6.75757587e-01,
          7.39393950e-01 ]
      - [ 8.43867898e-01, 7.64705896e-01, 6.90823317e-01, 7.08056450e-01,
          7.38181829e-01 ]
      - [ 5.60975611e-01, 8.41463387e-01, 8.07017565e-01, 8.02004993e-01,
          8.44611526e-01 ]
      - [ 5.92935264e-01, 7.83063412e-01, 5.96337020e-01, 6.20431900e-01,
          7.61808395e-01 ]
      - [ 8.26745152e-01, 7.38461554e-01, 6.65384591e-01, 6.49999976e-01,
          7.23076940e-01 ]
      - [ 8.02400768e-01, 6.92307711e-01, 6.15384638e-01, 6.58119678e-01,
          7.31331170e-01 ]
      - [ 7.98113227e-01, 8.63157868e-01, 6.83962286e-01, 6.96843863e-01,
          7.87878811e-01 ]
      - [ 8.24561417e-01, 8.11228096e-01, 7.34848499e-01, 7.61363626e-01,
          6.91558421e-01 ]
      - [ 8.24999988e-01, 8.78762543e-01, 6.66226029e-01, 6.48821354e-01,
          7.10303009e-01 ]
      - [ 8.32632482e-01, 8.16666663e-01, 6.48351669e-01, 6.73588037e-01,
          6.83823526e-01 ]
      - [ 9.50378478e-01, 8.21507752e-01, 6.66666687e-01, 6.92982435e-01,
          7.09558845e-01 ]
      - [ 9.41981137e-01, 7.62080073e-01, 6.94891870e-01, 6.68604672e-01,
          7.28484869e-01 ]
      - [ 8.94811332e-01, 7.33965695e-01, 6.84281826e-01, 6.29152834e-01,
          7.51515150e-01 ]
      - [ 8.68396223e-01, 8.36073518e-01, 6.08061731e-01, 6.78571403e-01,
          7.30909109e-01 ]
      - [ 8.40201855e-01, 8.19512188e-01, 6.19780242e-01, 6.27076387e-01,
          7.13235319e-01 ]
      - [ 8.45283031e-01, 7.89473712e-01, 6.59519732e-01, 6.74003303e-01,
          7.45454550e-01 ]
      - [ 8.87300253e-01, 8.16161633e-01, 6.38095260e-01, 6.71511650e-01,
          6.81372523e-01 ]
      - [ 8.64622653e-01, 8.06437373e-01, 6.55231535e-01, 6.68604672e-01,
          7.21212149e-01 ]
      - [ 7.28343129e-01, 9.37915742e-01, 7.17836261e-01, 6.71052635e-01,
          7.29532182e-01 ]
      - [ 7.08999157e-01, 9.24611986e-01, 7.98571408e-01, 7.64285743e-01,
          7.10784316e-01 ]
      - [ 5.55929363e-01, 9.70270276e-01, 8.66891921e-01, 8.24999988e-01,
          7.37745106e-01 ]
      - [ 7.83851981e-01, 9.24611986e-01, 7.56048381e-01, 7.35887110e-01,
          7.41935492e-01 ]
      - [ 7.50210285e-01, 9.33481157e-01, 7.13978469e-01, 6.90322578e-01,
          7.46236563e-01 ]
      - [ 5.10513008e-01, 9.54664350e-01, 8.67480397e-01, 8.29119444e-01,
          8.35222304e-01 ]
      - [ 6.66947007e-01, 9.16851461e-01, 8.14906836e-01, 7.61490703e-01,
          7.34068632e-01 ]
      - [ 6.85377359e-01, 7.17857122e-01, 9.45969105e-01, 7.55398691e-01,
          6.80158734e-01 ]
      - [ 5.87047935e-01, 8.41150701e-01, 9.21611726e-01, 7.66196012e-01,
          6.91176474e-01 ]
      - [ 6.71993256e-01, 7.39743590e-01, 9.29670334e-01, 7.46262431e-01,
          6.66666687e-01 ]
      - [ 6.60377383e-01, 7.52666116e-01, 9.37392771e-01, 7.54152834e-01,
          7.23636389e-01 ]
      - [ 6.24894857e-01, 7.35802472e-01, 9.17948723e-01, 7.62873769e-01,
          6.59259260e-01 ]
      - [ 7.07547188e-01, 6.71386003e-01, 7.66723871e-01, 9.68703449e-01,
          6.68032765e-01 ]
      - [ 7.80487776e-01, 7.21739113e-01, 6.40579700e-01, 6.60869539e-01,
          9.31372523e-01 ]
      - [ 7.08962262e-01, 8.05555582e-01, 6.86963975e-01, 7.91943550e-01,
          9.00606036e-01 ]
      - [ 6.08074009e-01, 6.99556530e-01, 7.50769258e-01, 7.10548162e-01,
          9.10539210e-01 ]
      - [ 7.19339609e-01, 6.80288434e-01, 6.91252172e-01, 8.01079750e-01,
          8.98181796e-01 ]
      - [ 7.50471711e-01, 7.36933827e-01, 6.93396211e-01, 7.80730903e-01,
          8.96969676e-01 ]
      - [ 7.95754731e-01, 6.72268927e-01, 7.14837074e-01, 7.82807291e-01,
          8.77575755e-01 ]
      - [ 7.79716969e-01, 6.48148119e-01, 7.35420227e-01, 7.86544859e-01,
          8.25454533e-01 ]
   decision_functions:
      -
         sv_count: 1
         rho: -9.4865848064106029e+00
         alpha: [ 1. ]
         index: [ 0 ]
      -
         sv_count: 1
         rho: -1.5486015742808821e+01
         alpha: [ 1. ]
         index: [ 1 ]
      -
         sv_count: 1
         rho: 5.0411393634237656e-01
         alpha: [ 1. ]
         index: [ 2 ]
      -
         sv_count: 1
         rho: -4.8627891014586427e-01
         alpha: [ 1. ]
         index: [ 3 ]
      -
         sv_count: 1
         rho: -1.0878138864680794e+01
         alpha: [ 1. ]
         index: [ 4 ]
      -
         sv_count: 1
         rho: -6.8142640313738125e+00
         alpha: [ 1. ]
         index: [ 5 ]
      -
         sv_count: 1
         rho: -8.1350998092744431e-01
         alpha: [ 1. ]
         index: [ 6 ]
      -
         sv_count: 1
         rho: -1.0286308372975268e+00
         alpha: [ 1. ]
         index: [ 7 ]
      -
         sv_count: 1
         rho: -3.0069402989059433e+00
         alpha: [ 1. ]
         index: [ 8 ]
      -
         sv_count: 1
         rho: 8.4901614488617643e+00
         alpha: [ 1. ]
         index: [ 9 ]
      -
         sv_count: 1
         rho: 1.4780904443294651e+00
         alpha: [ 1. ]
         index: [ 10 ]
      -
         sv_count: 1
         rho: 6.5592116521011345e-01
         alpha: [ 1. ]
         index: [ 11 ]
      -
         sv_count: 1
         rho: -1.5770639048365009e+00
         alpha: [ 1. ]
         index: [ 12 ]
      -
         sv_count: 1
         rho: 2.3617392745496142e+00
         alpha: [ 1. ]
         index: [ 13 ]
      -
         sv_count: 1
         rho: 1.9971712154702148e-01
         alpha: [ 1. ]
         index: [ 14 ]
